<?xml version="1.0" encoding="UTF-8" ?>
<PMML version="3.0" xmlns="http://www.dmg.org/PMML-3_0" xmlns:xsi="http://www.w3.org/2001/XMLSchema-instance" xsi:schemaLocation="http://www.dmg.org/PMML-3_0 http://www.dmg.org/v3-0/pmml-3-0.xsd">
 <Header copyright="Copyright IBM Corp. 2002, 2005 All Rights Reserved">
  <Application name="IBM DB2 Intelligent Miner" version="9.1"/>
  <Timestamp>2006-03-21 13:13:12</Timestamp>
 </Header>
 <MiningBuildTask>
  <Extension>&lt;?xml version="1.0" encoding="UTF-8" ?>
&lt;DataMining>&lt;MiningTask trainData="trainData">&lt;MiningData name="trainData" tableName="RASPL.INPUT_014">&lt;Column alias="buoy_day_ID" name="buoy_day_ID" sqlType="SMALLINT"/>&lt;Column alias="buoy" name="buoy" sqlType="SMALLINT"/>&lt;Column alias="day" name="day" sqlType="SMALLINT"/>&lt;Column alias="latitude" name="latitude" sqlType="DECIMAL"/>&lt;Column alias="longitude" name="longitude" sqlType="DECIMAL"/>&lt;Column alias="zon_winds" name="zon_winds" sqlType="DECIMAL"/>&lt;Column alias="mer_winds" name="mer_winds" sqlType="DECIMAL"/>&lt;Column alias="humidity" name="humidity" sqlType="DECIMAL"/>&lt;Column alias="airtemp" name="airtemp" sqlType="DECIMAL"/>&lt;Column alias="s_s_temp" name="s_s_temp" sqlType="DECIMAL"/>&lt;/MiningData>&lt;MiningSettings algorithm="Polynomial">&lt;LogicalDataSpec>&lt;MiningField name="buoy_day_ID" type="numerical"/>&lt;MiningField name="buoy" type="numerical"/>&lt;MiningField name="day" type="numerical"/>&lt;MiningField name="latitude" type="numerical"/>&lt;MiningField name="longitude" type="numerical"/>&lt;MiningField name="zon_winds" type="numerical"/>&lt;MiningField name="mer_winds" type="numerical"/>&lt;MiningField name="humidity" type="numerical"/>&lt;MiningField name="airtemp" type="numerical"/>&lt;MiningField name="s_s_temp" type="numerical"/>&lt;/LogicalDataSpec>&lt;RegSettings/>&lt;FieldUsageEntry field="airtemp" usageType="target"/>&lt;/MiningSettings>&lt;TaskControl errorTable="IDMMX.ERRORTABLE" progressTable="IDMMX.PROGRESSTABLE"/>&lt;/MiningTask>&lt;/DataMining></Extension>
 </MiningBuildTask>
 <DataDictionary numberOfFields="10">
  <DataField name="buoy" displayName="buoy" optype="continuous">
   <Value value="1"/>
   <Value value="2"/>
   <Value value="3"/>
   <Value value="4"/>
   <Value value="5"/>
   <Value value="6"/>
   <Value value="7"/>
   <Value value="8"/>
   <Value value="9"/>
   <Value value="10"/>
   <Value value="11"/>
   <Value value="12"/>
   <Value value="13"/>
   <Value value="14"/>
   <Value value="15"/>
   <Value value="16"/>
   <Value value="17"/>
   <Value value="18"/>
   <Value value="19"/>
   <Value value="20"/>
   <Value value="21"/>
   <Value value="22"/>
   <Value value="23"/>
   <Value value="24"/>
   <Value value="25"/>
   <Value value="26"/>
   <Value value="27"/>
   <Value value="28"/>
   <Value value="29"/>
   <Value value="30"/>
   <Value value="31"/>
   <Value value="32"/>
   <Value value="33"/>
   <Value value="34"/>
   <Value value="35"/>
   <Value value="36"/>
   <Value value="37"/>
   <Value value="38"/>
   <Value value="39"/>
   <Value value="40"/>
   <Value value="41"/>
   <Value value="42"/>
   <Value value="43"/>
   <Value value="44"/>
   <Value value="45"/>
   <Value value="46"/>
   <Value value="47"/>
   <Value value="48"/>
   <Value value="49"/>
   <Value value="50"/>
   <Value value="51"/>
   <Value value="52"/>
   <Value value="53"/>
   <Value value="54"/>
   <Value value="55"/>
   <Value value="56"/>
   <Value value="57"/>
   <Value value="58"/>
   <Value value="59"/>
  </DataField>
  <DataField name="day" displayName="day" optype="continuous">
   <Value value="1"/>
   <Value value="2"/>
   <Value value="3"/>
   <Value value="4"/>
   <Value value="5"/>
   <Value value="6"/>
   <Value value="7"/>
   <Value value="8"/>
   <Value value="9"/>
   <Value value="10"/>
   <Value value="11"/>
   <Value value="12"/>
   <Value value="13"/>
   <Value value="14"/>
  </DataField>
  <DataField name="latitude" displayName="latitude" optype="continuous">
   <Value value="8.96"/>
   <Value value="8.95"/>
   <Value value="8.97"/>
   <Value value="4.93"/>
   <Value value="4.92"/>
   <Value value="2"/>
   <Value value="1.99"/>
   <Value value="1.98"/>
   <Value value="-0.01"/>
   <Value value="-0.02"/>
   <Value value="-2.02"/>
   <Value value="-2"/>
   <Value value="-2.01"/>
   <Value value="-2.03"/>
   <Value value="-5.01"/>
   <Value value="-5"/>
   <Value value="5.15"/>
   <Value value="5.14"/>
   <Value value="1.95"/>
   <Value value="1.96"/>
   <Value value="1.94"/>
   <Value value="-0.2"/>
   <Value value="-0.21"/>
   <Value value="-0.22"/>
   <Value value="-0.19"/>
   <Value value="-2.04"/>
   <Value value="-5.02"/>
   <Value value="-7.97"/>
   <Value value="-7.95"/>
   <Value value="-7.96"/>
   <Value value="8.05"/>
   <Value value="8.04"/>
   <Value value="4.99"/>
   <Value value="4.98"/>
   <Value value="4.97"/>
   <Value value="2.08"/>
   <Value value="2.07"/>
   <Value value="-1.98"/>
   <Value value="-4.98"/>
   <Value value="-4.97"/>
   <Value value="-4.99"/>
   <Value value="-8.05"/>
   <Value value="-8.1"/>
   <Value value="8.06"/>
   <Value value="5.02"/>
   <Value value="5.03"/>
   <Value value="1.97"/>
   <Value value="0.11"/>
   <Value value="0.12"/>
   <Value value="0.1"/>
   <Value value="0.09"/>
   <Value value="0.13"/>
   <Value value="-1.97"/>
   <Value value="-1.96"/>
   <Value value="-5.03"/>
   <Value value="-8.02"/>
   <Value value="-8.01"/>
   <Value value="8"/>
   <Value value="7.99"/>
   <Value value="2.02"/>
   <Value value="2.03"/>
   <Value value="0.07"/>
   <Value value="0.08"/>
   <Value value="-1.99"/>
   <Value value="-7.98"/>
   <Value value="8.01"/>
   <Value value="-0.03"/>
   <Value value="-0.04"/>
   <Value value="-2.15"/>
   <Value value="-2.16"/>
   <Value value="-8"/>
   <Value value="7.97"/>
   <Value value="7.98"/>
   <Value value="0"/>
   <Value value="-8.28"/>
   <Value value="-8.27"/>
   <Value value="2.41"/>
   <Value value="2.42"/>
   <Value value="0.01"/>
   <Value value="8.08"/>
   <Value value="8.09"/>
   <Value value="8.07"/>
   <Value value="2.09"/>
   <Value value="0.06"/>
   <Value value="-1.92"/>
   <Value value="-1.93"/>
   <Value value="-8.03"/>
   <Value value="-8.04"/>
  </DataField>
  <DataField name="buoy_day_ID" displayName="buoy_day_ID" optype="continuous"/>
  <DataField name="longitude" displayName="longitude" optype="continuous"/>
  <DataField name="zon_winds" displayName="zon_winds" optype="continuous"/>
  <DataField name="mer_winds" displayName="mer_winds" optype="continuous"/>
  <DataField name="humidity" displayName="humidity" optype="continuous"/>
  <DataField name="airtemp" displayName="airtemp" optype="continuous"/>
  <DataField name="s_s_temp" displayName="s_s_temp" optype="continuous"/>
 </DataDictionary>
 <RegressionModel modelName="dmg.polynomial regression model" functionName="regression" modelType="stepwisePolynomialRegression" algorithmName="polynomialRegression" targetFieldName="airtemp" x-type="training">
  <MiningSchema>
   <MiningField name="buoy" missingValueTreatment="asValue" missingValueReplacement="37.5480795470864" importance="0.0795564346344789"/>
   <MiningField name="day" missingValueTreatment="asValue" missingValueReplacement="8.82833507533915" importance="0.020633180418739"/>
   <MiningField name="latitude" missingValueTreatment="asValue" missingValueReplacement="5.03544047911535" importance="0.0242869130751442"/>
   <MiningField name="buoy_day_ID" usageType="supplementary" lowValue="0" highValue="120"/>
   <MiningField name="longitude" lowValue="-200" highValue="200" missingValueTreatment="asValue" missingValueReplacement="-106.191233885652" importance="0.00194218619087974"/>
   <MiningField name="zon_winds" lowValue="-9" highValue="7" missingValueTreatment="asValue" missingValueReplacement="-4.82394771100082" importance="0.0761955945733028"/>
   <MiningField name="mer_winds" lowValue="-7" highValue="8" missingValueTreatment="asValue" missingValueReplacement="2.67726009558619" importance="0.0868422589254256"/>
   <MiningField name="humidity" lowValue="70" highValue="95" missingValueTreatment="asValue" missingValueReplacement="84.5447875942528" importance="0.0329134523069299"/>
   <MiningField name="airtemp" usageType="predicted" lowValue="22.5" highValue="29"/>
   <MiningField name="s_s_temp" lowValue="22" highValue="30" missingValueTreatment="asValue" missingValueReplacement="28.2221982815866" importance="0.6776299798751"/>
  </MiningSchema>
  <RegressionTable intercept="10.0054887551819">
   <NumericPredictor name="buoy" coefficient="0.089442891995617"/>
   <NumericPredictor name="day" coefficient="-0.0106531200918996"/>
   <NumericPredictor name="latitude" coefficient="0.0177854223872961"/>
   <NumericPredictor name="longitude" coefficient="0.00203547456641219"/>
   <NumericPredictor name="zon_winds" coefficient="0.0388923875213552"/>
   <NumericPredictor name="mer_winds" coefficient="-0.0642586994465178"/>
   <NumericPredictor name="humidity" coefficient="-0.0344912934156202"/>
   <NumericPredictor name="s_s_temp" coefficient="0.710114947685749"/>
   <NumericPredictor name="buoy" exponent="2" coefficient="-0.00307993940739062"/>
   <NumericPredictor name="day" exponent="2" coefficient="-0.00609768487926244"/>
   <NumericPredictor name="latitude" exponent="2" coefficient="0.00383289165747081"/>
   <NumericPredictor name="zon_winds" exponent="2" coefficient="0.0185500020462831"/>
   <NumericPredictor name="mer_winds" exponent="2" coefficient="-0.0133733493789174"/>
   <NumericPredictor name="buoy" exponent="3" coefficient="2.90949705182524e-05"/>
   <NumericPredictor name="day" exponent="3" coefficient="0.000408724480199477"/>
   <NumericPredictor name="longitude" exponent="3" coefficient="-6.05759019293513e-08"/>
   <NumericPredictor name="zon_winds" exponent="3" coefficient="0.00128531692905362"/>
   </RegressionTable>
  <Extension name="X-Quality">
   <X-Quality x-targetField="airtemp" x-dataName="dmg.polynomial regression model" x-modelQuality="0.828615756275268">
    <X-LiftData x-rankingQuality="0.890999861551322">
     <X-LiftGraph>
      <X-XCoordinates>
       <Array n="110" type="int"> 4 6 11 16 19 21 26 29 34 35 43 47 50 56 62 68 80 95 98 104 108 125 127 135 138 143 154 156 170 178 191 193 197 208 223 231 234 254 257 267 277 283 295 302 309 316 319 321 329 331 334 336 344 353 361 366 375 379 387 391 398 406 420 422 427 433 441 461 466 471 480 484 487 492 493 500 503 510 514 518 534 540 542 545 553 565 566 569 571 572 578 581 586 598 606 611 615 621 631 636 641 646 651 655 664 668 671 675 680 684</Array>
      </X-XCoordinates>
      <X-YCoordinates>
       <Array n="110" type="real"> 115.93 58.53 144.16 143.33 86.87 57.16 144.67 86.57 145.31 29.09 228.82 114.49 85.2 171.82 171.5 171.64 344.54 429.47 86.23 171.31 115.35 486.79 57.64 226.57 85.46 142.02 313.68 56.46 393.09 226.08 365.56 55.93 111.73 310.09 424.96 226.01 84.42 565.03 84.9 280.26 280.59 167.03 337.34 197.53 197.14 197.07 84.22 56.02 224.26 55.88 84.52 55.22 221.32 251.73 223.59 139.76 249.79 111.25 222.47 111.04 196.66 220.17 389.95 55.06 140.03 165.79 221.32 553.3 137.12 138.17 247.44 110.81 83.13 138.67 26.88 190.13 82.88 189.98 109.18 108.83 433.19 161.79 54.43 81.35 213.42 320.01 25.94 79.2 54.3 26.66 159.55 79.34 131.22 312.83 204.97 126.64 103.52 153.33 252.91 125.69 126.2 126.56 127.14 99.62 223.5 100.55 74.42 96.82 120.32 92.33</Array>
      </X-YCoordinates>
      <X-BoundaryValues>
       <Array n="110" type="real"> 29.4035807336368 29.21 29.16 29.09 29.05 29.03 28.97 28.89 28.85 28.81 28.77 28.74 28.72 28.68 28.66 28.64 28.61 28.57 28.56 28.53 28.52 28.49 28.48 28.46 28.45 28.44 28.42 28.41 28.39 28.37 28.34 28.33 28.32 28.29 28.26 28.24 28.23 28.19 28.18 28.16 28.13 28.11 28.08 28.06 28.05 28.03 28.01 28 27.98 27.97 27.96 27.94 27.91 27.89 27.86 27.85 27.81 27.8 27.77 27.74 27.72 27.7 27.66 27.65 27.63 27.61 27.59 27.54 27.51 27.48 27.44 27.42 27.39 27.37 27.35 27.3 27.27 27.21 27.18 27.14 27.08 27.02 26.98 26.94 26.86 26.76 26.71 26.67 26.64 26.62 26.56 26.52 26.41 26.18 25.99 25.89 25.77 25.67 25.53 25.45 25.29 25.21 25.09 25.04 24.91 24.7 24.49 24.19 23.87 22.72</Array>
      </X-BoundaryValues>
      </X-LiftGraph>
     <X-LiftGraph x-usage="optimum">
      <X-XCoordinates>
       <Array n="113" type="int"> 3 9 15 21 27 35 41 45 54 57 64 70 75 81 87 93 99 105 114 117 127 131 140 143 151 156 160 166 173 177 184 189 195 203 210 213 219 227 233 237 243 250 255 264 267 274 284 289 291 300 303 311 320 324 328 334 344 351 360 371 372 380 386 392 396 404 412 414 422 427 432 440 444 453 459 464 469 474 480 487 494 498 504 510 516 523 528 534 541 548 555 560 565 570 576 582 588 594 600 606 612 618 624 630 636 643 648 654 660 667 672 678 684</Array>
      </X-XCoordinates>
      <X-YCoordinates>
       <Array n="113" type="real"> 88.98 175.96 175.46 175.07 174.86 232.82 174.37 116.13 260.87 86.86 202.31 173.15 144.17 172.75 172.51 172.33 172.15 172 257.78 85.85 285.81 114.24 256.83 85.56 227.94 142.4 113.86 170.7 199.08 113.69 198.87 141.98 170.24 226.76 198.31 84.96 169.76 226.12 169.46 112.92 169.22 197.26 140.83 253.25 84.35 196.62 280.63 140.25 56.07 252.14 84 223.87 251.73 111.84 111.77 167.53 278.9 195.1 250.65 306 27.8 222.21 166.47 166.34 110.82 221.39 221.2 55.27 220.89 137.97 137.78 220.14 109.97 247.07 164.54 136.97 136.87 136.78 163.9 190.97 190.64 108.75 162.89 162.59 162.21 188.91 134.76 161.36 187.56 187.05 186.76 133.24 133.1 132.95 159.21 158.8 157.61 156.29 155.55 154.88 154.28 153.38 152.77 152.06 151.46 175.89 125.25 149.8 148.85 171.98 121.61 144.11 139.91</Array>
      </X-YCoordinates>
      <X-BoundaryValues>
       <Array n="113" type="real"> 29.4035807336368 29.31 29.21 29.16 29.13 29.09 29.05 29.03 28.97 28.95 28.89 28.85 28.81 28.77 28.74 28.72 28.68 28.66 28.64 28.61 28.57 28.56 28.53 28.52 28.49 28.48 28.46 28.45 28.44 28.42 28.41 28.39 28.37 28.34 28.33 28.32 28.29 28.26 28.24 28.23 28.19 28.18 28.16 28.13 28.11 28.08 28.06 28.05 28.03 28.01 28 27.98 27.97 27.96 27.94 27.91 27.89 27.86 27.85 27.81 27.8 27.77 27.74 27.72 27.7 27.66 27.65 27.63 27.61 27.59 27.54 27.51 27.48 27.44 27.42 27.39 27.37 27.35 27.3 27.27 27.21 27.18 27.14 27.08 27.02 26.98 26.94 26.86 26.76 26.71 26.67 26.64 26.62 26.56 26.52 26.41 26.18 25.99 25.89 25.77 25.67 25.53 25.45 25.29 25.21 25.09 25.04 24.91 24.7 24.49 24.19 23.87 22.72</Array>
      </X-BoundaryValues>
      </X-LiftGraph>
     </X-LiftData>
    <X-AccuracyData x-accuracyQuality="0.766231650999215" x-RMSE="0.483065765372364" rSquared="0.84936434872562"/>
    </X-Quality>
   </Extension>
  <Extension name="X-Correlations">
   <X-Correlations>
    <Array>"airtemp" "buoy" "day" "latitude" "longitude" "zon_winds" "mer_winds" "humidity" "s_s_temp" "buoy" "day" "latitude" "longitude" "zon_winds" "mer_winds" "humidity" "s_s_temp" "buoy" "day" "latitude" "longitude" "zon_winds" "mer_winds" "humidity" "s_s_temp"</Array>
    <Matrix kind="symmetric" nbRows="25" nbCols="25" diagDefault="1" offDiagDefault="0">
     <Array n="1" type="real"> 1</Array>
     <Array n="2" type="real"> 0.522365694225489 1</Array>
     <Array n="3" type="real"> -0.0742213273866386 0.0262234996648629 1</Array>
     <Array n="4" type="real"> 0.0865043556969303 -0.0456930683128271 0.0219412182686445 1</Array>
     <Array n="5" type="real"> 0.293588275795282 0.667480278783326 -0.0143703570149681 0.125013666207307 1</Array>
     <Array n="6" type="real"> 0.00360686481841199 -0.0733197650943679 -0.0901299202064135 0.0682187447139158 0.0165696221292296 1</Array>
     <Array n="7" type="real"> -0.280203280066567 -0.298423197658618 -0.0576661302888894 -0.170760008314396 -0.16121563666158 0.259971104767946 1</Array>
     <Array n="8" type="real"> -0.26463517692489 -0.00916420713452718 -0.0729627445357725 0.155908501222959 -0.0595024090638155 0.048610958001289 -0.138343922964102 1</Array>
     <Array n="9" type="real"> 0.86931662717958 0.553134500954063 -0.0325636130110783 0.0311456120601626 0.301510053897663 0.0414960187033224 -0.234057419811055 -0.220637423293335 1</Array>
     <Array n="10" type="real"> 0.491784810107742 0.971052538154734 0.0288100413554667 -0.0341203389283023 0.765573334574952 -0.0744731690888414 -0.324629485845354 -0.012374918041761 0.535633404037836 1</Array>
     <Array n="11" type="real"> -0.0624062340479974 0.0347075069448905 0.971671039999177 0.0230906592039925 -0.0113109886267886 -0.110765919325242 -0.0472860734386834 -0.0563117634254442 -0.0272167799701689 0.0358829945655219 1</Array>
     <Array n="12" type="real"> 0.271896041793306 0.0188000194768278 0.0232482929146186 0.106043807722349 0.011227032047421 -0.0819640729945293 -0.0355600100145399 -0.190217806686553 0.181442539181054 0.0267388827373876 0.0217362172383281 1</Array>
     <Array n="13" type="real"> 0.454595171988612 0.56888686492418 0.065362769129505 0.0799849496858138 0.136260046422506 -0.260593244733204 -0.533015202660653 0.16369886382478 0.517003735098666 0.553517674857085 0.0775942341642202 -0.0413328200823572 1</Array>
     <Array n="14" type="real"> 0.108223956733978 0.0247530237181415 0.0643449817143254 0.0547630397459108 -0.0479961471630868 -0.818553613915766 -0.20013235552483 -0.0989739725289271 0.0063328095757797 0.0166254289597783 0.0972088372376997 0.304534143363927 0.162199844021419 1</Array>
     <Array n="15" type="real"> 0.0345586471045742 -0.101329543583687 -0.0819707754904985 0.255345029882083 -0.041715633340268 -0.00384204314608443 -0.0219285536190397 -0.0889056120314135 0.0852650880384893 -0.104682614213031 -0.0744293479131347 0.184220666756977 -0.097169924963528 0.0268265013629058 1</Array>
     <Array n="16" type="real"> -0.262503908081212 -0.00756414603233726 -0.0726084447137123 0.14840601678367 -0.0633199871150321 0.0440107328490673 -0.136531096341424 0.99928670155736 -0.219991710726423 -0.011742909194472 -0.0557616755931653 -0.188237318601434 0.165402113537245 -0.0950028554368386 -0.091285802300464 1</Array>
     <Array n="17" type="real"> 0.868686238864357 0.558939065658443 -0.0282865123014097 0.0280931641236945 0.307326081862951 0.0497027679411262 -0.235043436873067 -0.223373566011918 0.999420968853458 0.541714285801104 -0.0234657299773259 0.174560361318217 0.519001155858743 -0.00289343020613201 0.0769271804423913 -0.222835387211072 1</Array>
     <Array n="18" type="real"> 0.445241440732543 0.922179527013383 0.0260831522287116 -0.0404155100060945 0.815817408491431 -0.0572046694169303 -0.306720476521226 -0.0116631353736034 0.490508762203247 0.986534748791714 0.0316517449372798 0.0390892797328143 0.504170598787854 0.00146175575545313 -0.100271191570784 -0.0116063175159616 0.496483663842227 1</Array>
     <Array n="19" type="real"> -0.048822082507363 0.0424934076389279 0.921207221641975 0.0231612926365598 -0.00784084512196321 -0.123824882011001 -0.0373341204745101 -0.0415533362919217 -0.0195467750812793 0.0424943767179884 0.985944669302904 0.0193455520952652 0.086469401404666 0.12091341462408 -0.0692601967240758 -0.0408485642612295 -0.0163741031178585 0.0370908106441793 1</Array>
     <Array n="20" type="real"> 0.0811914288565015 -0.0787482949381249 0.0176996818016698 0.91837076228167 0.0642251096319167 0.111746739005221 -0.259284340187284 0.158472268188228 0.0260825605717942 -0.0650632167601127 0.0170941906099763 0.131084067800255 0.100942822486379 0.0208129113150081 0.24059000284068 0.150038250598785 0.0243786190522424 -0.0674519200050567 0.0162455355501357 1</Array>
     <Array n="21" type="real"> 0.156289482308845 0.515733002894763 -0.0332337922101546 0.0887198772345001 0.964928868270449 0.0649531410916161 -0.0386322757095631 -0.0879349497520159 0.150885821057787 0.631344269893895 -0.0326927154373853 0.0381575106084324 -0.0989875733759957 -0.0697159673483243 -0.0133949144085038 -0.0920704729335723 0.155406998625575 0.704266166888076 -0.0311462449400933 0.0289658107780175 1</Array>
     <Array n="22" type="real"> -0.0895227590794008 -0.0291586216006492 -0.0434729898808982 -0.0240718009567406 0.0431149601555925 0.835788410520718 0.188089637934015 0.10961619264645 -0.0125844396438652 -0.0229070738136395 -0.0782866817707594 -0.270944092067829 -0.17045570133899 -0.950091343053136 -0.0477269534700683 0.105307097389905 -0.00349259392734056 -0.00901084929527882 -0.102761245234658 0.016396223729131 0.0671895282947778 1</Array>
     <Array n="23" type="real"> -0.136752925403835 -0.14576827076704 -0.0452495432862936 -0.130020616126726 -0.0853667250182141 0.261851730707086 0.838016742622344 -0.106683046568288 -0.0689940733013824 -0.184822101904104 -0.0333356756328541 -0.139471322360574 -0.378132576184927 -0.242195184510941 0.0726283887296204 -0.105437278965358 -0.0684519705060686 -0.183147646268053 -0.0237471244747833 -0.231557066245824 -0.00444377062316582 0.211508001333117 1</Array>
     <Array n="24" type="real"> -0.25964861932727 -0.0057962576238216 -0.0721993598896045 0.140893165475969 -0.066938721135116 0.0394812344926258 -0.134542952042234 0.997155190472162 -0.218704393746375 -0.0109473534052744 -0.0552304376579898 -0.186019613644582 0.167022002191867 -0.0910650675080984 -0.0933692303967584 0.999289060591091 -0.221653944902863 -0.011410743762752 -0.0402150358931307 0.141490997583337 -0.0960306376529578 0.101039733070913 -0.10395986227297 1</Array>
     <Array n="25" type="real"> 0.867043537527115 0.563929797078599 -0.0241677372785374 0.0248613926975458 0.312688048135453 0.0580053332011455 -0.235518769532726 -0.225800315754383 0.997758335045756 0.546964237551726 -0.019896618368922 0.167321666645647 0.519980414663501 -0.0122460838987911 0.0685083586856134 -0.225365925251356 0.999456751302649 0.501671645168593 -0.013393534586745 0.0225724459323936 0.159728274526503 0.00572512416603342 -0.0677397496687852 -0.224287686914855 1</Array>
    </Matrix>
   </X-Correlations>
   </Extension>
  </RegressionModel>
</PMML>
